// Neural Network File Format by Kyle Julian, Stanford 2016
3,3,4,10,
3,10,10,4,
0,
-1.0,-50.0,-1.0,
1.0,50.0,1.0,
0.0,0.0,0.0,0.0,
1.0,1.0,1.0,1.0,
1.00000e+00,0.00000e+00,0.00000e+00,
-1.00000e+00,0.00000e+00,0.00000e+00,
8.15461e-02,0.00000e+00,-6.62709e-02,
1.69508e-01,0.00000e+00,5.84643e-01,
7.54333e-01,0.00000e+00,1.90879e-01,
-2.97155e-01,0.00000e+00,-2.55583e-01,
0.00000e+00,0.00000e+00,1.00000e+00,
0.00000e+00,0.00000e+00,-1.00000e+00,
0.00000e+00,1.00000e+00,0.00000e+00,
0.00000e+00,-1.00000e+00,0.00000e+00,
0.00000e+00,
0.00000e+00,
2.23488e-01,
-6.93654e-01,
-2.59859e-01,
6.41719e-01,
0.00000e+00,
0.00000e+00,
0.00000e+00,
0.00000e+00,
1.00000e+00,-1.00000e+00,0.00000e+00,0.00000e+00,0.00000e+00,0.00000e+00,0.00000e+00,0.00000e+00,0.00000e+00,0.00000e+00,
-1.00000e+00,1.00000e+00,0.00000e+00,0.00000e+00,0.00000e+00,0.00000e+00,0.00000e+00,0.00000e+00,0.00000e+00,0.00000e+00,
0.00000e+00,0.00000e+00,3.47827e-01,-6.15688e-01,8.22882e-01,9.63588e-01,0.00000e+00,0.00000e+00,0.00000e+00,0.00000e+00,
0.00000e+00,0.00000e+00,4.87729e-01,9.74931e-01,9.52870e-01,-6.75958e-01,0.00000e+00,0.00000e+00,0.00000e+00,0.00000e+00,
0.00000e+00,0.00000e+00,-7.02268e-01,-5.55506e-01,7.67753e-03,-9.48421e-01,0.00000e+00,0.00000e+00,0.00000e+00,0.00000e+00,
0.00000e+00,0.00000e+00,8.92713e-02,8.10910e-01,-8.90530e-01,-7.05677e-01,0.00000e+00,0.00000e+00,0.00000e+00,0.00000e+00,
0.00000e+00,0.00000e+00,0.00000e+00,0.00000e+00,0.00000e+00,0.00000e+00,1.00000e+00,-1.00000e+00,0.00000e+00,0.00000e+00,
0.00000e+00,0.00000e+00,0.00000e+00,0.00000e+00,0.00000e+00,0.00000e+00,-1.00000e+00,1.00000e+00,0.00000e+00,0.00000e+00,
0.00000e+00,0.00000e+00,0.00000e+00,0.00000e+00,0.00000e+00,0.00000e+00,0.00000e+00,0.00000e+00,1.00000e+00,-1.00000e+00,
0.00000e+00,0.00000e+00,0.00000e+00,0.00000e+00,0.00000e+00,0.00000e+00,0.00000e+00,0.00000e+00,-1.00000e+00,1.00000e+00,
0.00000e+00,
0.00000e+00,
3.79031e-02,
2.74288e-01,
-1.03425e-01,
1.05019e-01,
0.00000e+00,
0.00000e+00,
0.00000e+00,
0.00000e+00,
1.00000e+00,-1.00000e+00,0.00000e+00,0.00000e+00,0.00000e+00,0.00000e+00,5.00000e-02,-5.00000e-02,0.00000e+00,0.00000e+00,
0.00000e+00,0.00000e+00,0.00000e+00,0.00000e+00,0.00000e+00,0.00000e+00,0.00000e+00,0.00000e+00,1.00000e+00,-1.00000e+00,
0.00000e+00,0.00000e+00,-2.82313e+00,-8.29056e+00,-1.54743e+01,-1.84715e+01,1.00000e+00,-1.00000e+00,0.00000e+00,0.00000e+00,
0.00000e+00,0.00000e+00,-2.82313e+00,-8.29056e+00,-1.54743e+01,-1.84715e+01,1.00000e+00,-1.00000e+00,0.00000e+00,0.00000e+00,
0.00000e+00,
0.00000e+00,
1.66308e+01,
2.16308e+01,
