// Neural Network File Format by Kyle Julian, Stanford 2016
//
8,4,1,25,
4,3,25,10,10,2,1,1,1,
0,
0.0,0.0,0.0,0.0,
0.0,0.0,0.0,0.0,
0.0,0.0,0.0,0.0,0.0,
0.0,0.0,0.0,0.0,0.0,
1.00000e+00,0.00000e+00,0.00000e+00,0.00000e+00,
0.00000e+00,1.00000e+00,0.00000e+00,0.00000e+00,
0.00000e+00,0.00000e+00,0.00000e+00,1.00000e+00,
0.00000e+00,
1.50000e+01,
-6.60000e+01,
-4.97835e-01,-5.01879e-01,1.57751e-01,
2.12589e-01,-2.43749e-01,3.12262e-01,
-7.55634e-02,-7.11584e-01,6.92285e-01,
-1.36742e-01,-9.98773e-02,1.18390e-01,
-3.95715e-01,-6.30037e-02,3.14766e-01,
-2.73392e-02,4.46123e-01,6.65453e-01,
-3.65696e-01,5.12722e-02,5.64832e-01,
1.17766e-02,-4.06979e-01,1.75253e-02,
-3.62253e-01,5.09106e-01,8.39150e-02,
-3.69584e-01,-4.71210e-01,-5.78176e-02,
-1.62038e-02,-4.70237e-01,-9.72510e-02,
-3.18718e-01,4.21118e-01,-4.61710e-01,
-4.45858e-01,-1.77104e-01,2.83867e-01,
-3.55037e-01,4.88817e-01,-3.63901e-01,
-3.94921e-01,1.10555e-01,-1.61239e-01,
8.03034e-02,-8.68509e-02,6.85289e-01,
3.59061e-01,1.16165e-01,-5.44961e-01,
3.05256e-01,6.08063e-01,-2.18737e-01,
-3.91963e-01,-1.04144e-01,-5.10617e-01,
-2.40476e-01,6.88056e-01,1.13830e-01,
-5.08669e-01,-1.88192e-01,2.43788e-01,
-3.16058e-01,-1.57304e-01,-1.34871e-01,
-4.66329e-01,-1.11473e-01,-8.28557e-04,
4.05038e-02,4.47582e-01,6.89904e-01,
-3.54700e-02,4.87950e-02,6.99879e-01,
7.41933e+00,
4.03469e+00,
1.17632e+01,
1.65166e+00,
9.04198e-01,
-5.92682e+00,
-7.93744e-01,
4.81093e+00,
-7.16513e+00,
7.29183e+00,
7.11714e+00,
-6.81765e+00,
2.70038e+00,
-6.95735e+00,
-1.19868e+00,
5.92549e-01,
-1.53748e+00,
-1.00979e+01,
1.95513e+00,
-1.01540e+01,
2.72488e+00,
2.31649e+00,
1.41414e+00,
-7.81636e+00,
-2.65961e-01,
2.31782e-01,-1.54841e-01,5.83891e-01,1.83578e-01,1.69493e-01,6.09021e-01,1.62127e-01,2.71188e-01,6.25048e-02,5.67158e-02,9.80087e-01,-9.73729e-02,-6.71959e-02,1.92748e-01,-5.95406e-02,-1.64317e-01,1.27854e-01,1.29814e-02,2.03358e-01,3.22546e-01,1.67983e-01,1.12335e-01,1.42682e-02,1.53308e-03,7.55488e-01,
1.00462e-01,-4.77106e-02,3.42549e-01,1.12089e-01,-1.68604e-01,4.67323e-01,1.27116e-01,1.04972e-01,2.16976e-01,1.83199e-01,1.48319e-01,2.33153e-01,9.65896e-02,-1.03955e-03,2.16966e-01,1.65030e-01,2.08567e-02,5.96116e-02,1.09301e-01,1.62483e-01,-1.36767e-01,-3.86320e-02,-1.98086e-01,1.76024e-01,2.86506e-01,
1.10471e-01,-1.08099e-01,-1.24144e-01,2.20509e-02,-8.22449e-03,2.16714e-04,-1.64802e-01,-1.14180e-01,1.62328e-01,1.42011e-01,-1.32103e-01,6.00374e-03,-8.66974e-02,-1.05003e-01,-1.77556e-01,8.64041e-02,-2.28952e-02,2.97572e-02,-1.66058e-01,-1.33241e-01,1.36899e-01,-1.38597e-01,-1.77821e-01,-5.86044e-02,-1.32647e-01,
8.80477e-02,1.11561e-01,-3.33743e-02,1.07315e-01,-1.39022e-01,2.17130e-01,1.35934e-01,-9.10704e-04,-5.76176e-02,9.04267e-02,-9.43442e-02,-1.91888e-01,2.19627e-02,-1.24465e-02,1.55778e-01,1.19251e-01,8.84744e-03,1.36147e-01,1.31947e-01,-1.35476e-01,-1.47993e-01,-2.07436e-01,-1.07630e-01,-1.56104e-01,6.49750e-02,
-3.43301e-02,3.62057e-02,-1.62287e-02,-6.32776e-02,-1.25121e-01,-1.32027e-01,8.34536e-02,9.08674e-02,-1.68571e-01,1.25559e-01,-2.30905e-01,-1.04207e-01,9.60126e-02,-1.54100e-01,1.71065e-01,-4.71843e-03,-1.57069e-01,6.08041e-02,-1.51183e-01,1.80175e-01,-8.64578e-02,1.20373e-01,-6.47022e-02,-5.40300e-02,-1.95800e-01,
1.51621e-01,2.28355e-02,-1.28872e-01,-1.70227e-01,1.44812e-01,7.61083e-02,9.68210e-03,-1.55379e-01,-9.87694e-02,-2.11653e-01,-1.44266e-01,6.14226e-02,6.03496e-02,1.33000e-01,1.10138e-01,8.43168e-02,-1.17123e-01,-2.03257e-01,1.64388e-01,-5.68309e-02,1.35201e-01,1.36116e-01,1.24198e-01,-8.41881e-02,5.28390e-02,
1.22893e-01,-5.96615e-02,2.48802e-01,-5.06804e-02,-4.71006e-02,2.60608e-01,1.48431e-01,4.00328e-01,1.39913e-01,1.49015e-01,4.04611e-01,3.21715e-02,-1.11012e-01,-5.76513e-02,-1.02881e-01,1.36503e-01,-8.00826e-03,1.77922e-01,-1.28694e-01,2.31664e-01,-1.29511e-02,5.06347e-02,1.38834e-01,-3.29949e-02,4.70846e-01,
1.66181e-01,-1.74843e-01,4.78276e-01,-1.30833e-01,-2.07363e-02,4.53902e-01,2.64653e-01,3.04730e-01,-2.46976e-02,8.96263e-02,7.16078e-01,-1.25698e-01,-1.26751e-01,-6.01739e-02,-1.16996e-01,9.55647e-02,1.46821e-01,9.39431e-02,-5.86406e-03,-7.77969e-02,4.58681e-02,8.08566e-02,-8.51414e-03,1.29066e-01,4.09008e-01,
5.36878e-02,1.55898e-01,-3.41706e-01,9.43812e-02,-1.94775e-01,-2.47266e-01,-6.67771e-02,-1.22835e-01,9.29711e-02,1.15622e-01,-4.80540e-01,-1.97221e-02,4.39143e-02,2.64952e-02,2.22743e-02,-1.70752e-01,2.15088e-01,1.29034e-01,-1.06156e-01,-1.68850e-01,-5.84474e-02,-9.14030e-02,-6.40856e-03,-2.11254e-01,-2.33289e-01,
1.34383e-01,-1.95105e-01,1.66177e-01,1.14460e-01,-9.04596e-02,-1.04150e-01,9.64936e-02,-2.14580e-01,-1.08280e-01,-2.09412e-01,-1.47211e-01,-1.55049e-01,-6.06625e-02,1.36616e-01,-1.38066e-01,-8.19343e-02,1.58904e-01,-9.64108e-02,-1.04931e-01,7.67743e-02,6.80656e-02,8.69299e-03,4.76595e-02,-1.53597e-01,1.52646e-01,
-5.76042e-01,
-6.49995e-01,
6.18808e-02,
2.69399e-01,
9.03882e-02,
-1.76942e-02,
-7.99558e-01,
-3.45764e-01,
5.26032e-01,
-1.01580e-01,
-1.36879e-01,-2.22281e-01,1.29694e-01,-2.22888e-01,-1.03350e-02,2.11034e-01,2.91811e-01,-4.92237e-02,1.61284e-01,4.59161e-02,
5.11027e-01,1.14953e-01,-2.75988e-01,-8.84879e-02,-4.03551e-02,4.57503e-02,1.50237e-01,1.89469e-01,-1.41838e-01,-2.27737e-01,
-2.50332e-01,-2.03136e-01,-1.07663e-01,-2.80772e-01,6.85356e-02,-3.50169e-02,-2.96384e-01,1.39310e-01,-5.16284e-02,2.15597e-01,
3.18780e-01,1.65605e-04,3.07064e-01,-2.45827e-01,-9.30398e-02,-1.20253e-01,3.28521e-01,3.43835e-01,-1.49540e-01,1.57379e-01,
6.31163e-01,1.62908e-01,9.76883e-02,-2.47862e-01,-1.24655e-01,3.31096e-01,2.65720e-01,8.10372e-02,2.63949e-01,-2.93056e-01,
3.40166e-01,5.00488e-02,-1.31979e-01,2.88821e-01,-9.20472e-02,-1.93747e-01,7.14304e-02,1.44702e-01,-2.80360e-01,-1.90572e-01,
-1.98252e-01,-2.30252e-01,-3.93125e-02,1.57358e-02,2.06553e-01,-1.21435e-01,-1.21646e-01,2.71303e-01,-2.30875e-02,2.11398e-01,
-3.39178e-01,2.60229e-01,-2.58225e-02,-4.89099e-02,-1.36725e-01,1.62903e-01,2.16531e-01,2.87148e-01,1.79996e-02,8.67663e-04,
1.65839e-01,1.97370e-01,-2.08484e-01,2.41697e-01,-2.16509e-01,1.82392e-01,-1.72079e-01,-1.76490e-01,-3.89424e-02,4.14862e-02,
4.73742e-01,3.16235e-01,-1.91473e-02,1.49606e-01,-2.31634e-01,3.42184e-01,1.32204e-01,-1.30861e-01,-1.72175e-01,-2.15029e-01,
4.56653e-01,
-8.43241e-02,
7.65455e-02,
-6.48681e-01,
-2.70734e-01,
-4.52111e-01,
5.02480e-01,
3.63712e-01,
-6.33908e-01,
-7.16639e-01,
-1.12301e-01,-3.40673e-01,-1.61533e-01,-9.22459e-01,8.77706e-02,-1.99497e-01,1.68139e-03,1.35318e-01,-2.28649e-01,-2.85966e-01,
-1.56131e-01,3.62649e-01,-2.67077e-01,1.11778e+00,1.39260e-01,2.57565e-01,3.18806e-01,2.71089e-04,6.22875e-01,5.68133e-01,
1.00223e+02,
9.97068e+01,
-1.00000e+00,1.00000e+00,
0.00000e+00,
-1.00000e+02,
1.00000e+00,
-1.00000e+00,
1.00000e+00,
